{
  "responseHeader": {
    "status": 0,
    "QTime": 1
  },
  "models": [
    {
      "name": "my_linearsvc_model",
      "class": "org.apache.solr.ltr.model.LinearModel",
      "store": "myfeature_store",
      "features": [
        {
          "name": "originalScore",
          "norm": {
            "class": "org.apache.solr.ltr.norm.IdentityNormalizer"
          }
        },
        {
          "name": "titleLength",
          "norm": {
            "class": "org.apache.solr.ltr.norm.IdentityNormalizer"
          }
        },
        {
          "name": "contentLength",
          "norm": {
            "class": "org.apache.solr.ltr.norm.IdentityNormalizer"
          }
        },
        {
          "name": "titleScore",
          "norm": {
            "class": "org.apache.solr.ltr.norm.IdentityNormalizer"
          }
        },
        {
          "name": "contentScore",
          "norm": {
            "class": "org.apache.solr.ltr.norm.IdentityNormalizer"
          }
        },
        {
          "name": "freshness",
          "norm": {
            "class": "org.apache.solr.ltr.norm.IdentityNormalizer"
          }
        },
        {
          "name": "clickCount",
          "norm": {
            "class": "org.apache.solr.ltr.norm.IdentityNormalizer"
          }
        }
      ],
      "params": {
        "weights": {
          "originalScore": -6.288693566366976E-17,
          "titleLength": -4.450827329037952E-20,
          "contentLength": 2.0616347675459654E-18,
          "titleScore": -8.237127511920683E-20,
          "contentScore": -4.3083252193294456E-19,
          "freshness": 9.969317909561175E-21,
          "clickCount": 2.7973369646775514E-11
        }
      }
    },
    {
      "name": "my_airalcorn_ranknet_model",
      "class": "org.apache.solr.ltr.model.NeuralNetworkModel",
      "store": "myfeature_store",
      "features": [
        {
          "name": "originalScore",
          "norm": {
            "class": "org.apache.solr.ltr.norm.IdentityNormalizer"
          }
        },
        {
          "name": "titleLength",
          "norm": {
            "class": "org.apache.solr.ltr.norm.IdentityNormalizer"
          }
        },
        {
          "name": "contentLength",
          "norm": {
            "class": "org.apache.solr.ltr.norm.IdentityNormalizer"
          }
        },
        {
          "name": "titleScore",
          "norm": {
            "class": "org.apache.solr.ltr.norm.IdentityNormalizer"
          }
        },
        {
          "name": "contentScore",
          "norm": {
            "class": "org.apache.solr.ltr.norm.IdentityNormalizer"
          }
        },
        {
          "name": "freshness",
          "norm": {
            "class": "org.apache.solr.ltr.norm.IdentityNormalizer"
          }
        },
        {
          "name": "clickCount",
          "norm": {
            "class": "org.apache.solr.ltr.norm.IdentityNormalizer"
          }
        }
      ],
      "params": {
        "layers": [
          {
            "matrix": [
              [
                0.09652458131313324,
                0.20054703950881958,
                -0.315927118062973,
                0.20319227874279022,
                -0.08409833908081055,
                -0.038508858531713486,
                -0.2625976502895355
              ],
              [
                -0.024225249886512756,
                -0.0033969671931117773,
                -0.2183883637189865,
                0.03756897151470184,
                0.0942186787724495,
                -0.10794366151094437,
                0.19151559472084045
              ],
              [
                -0.032397300004959106,
                0.12617987394332886,
                -0.2001875638961792,
                -0.23731662333011627,
                0.0347805917263031,
                0.08607983589172363,
                -0.08293476700782776
              ],
              [
                0.20610997080802917,
                -0.21567444503307343,
                -0.1941995620727539,
                -0.20555591583251953,
                0.18552914261817932,
                -0.09802351146936417,
                0.01401868648827076
              ],
              [
                -0.214874267578125,
                0.00688980333507061,
                0.32071274518966675,
                -0.16157424449920654,
                -0.14962218701839447,
                0.3734044134616852,
                0.16620782017707825
              ],
              [
                -0.03811505809426308,
                0.3573150336742401,
                0.31174516677856445,
                0.05009256675839424,
                0.1863017976284027,
                0.2046690583229065,
                0.17617203295230865
              ],
              [
                -0.13722634315490723,
                0.025203704833984375,
                0.22545966506004333,
                0.04560008645057678,
                0.05950626730918884,
                -0.2323603630065918,
                -0.2014673501253128
              ],
              [
                -0.10665138810873032,
                -0.08833955228328705,
                -0.007417803630232811,
                -0.13618415594100952,
                -0.20101188123226166,
                0.2388007938861847,
                -3.285665297880769E-4
              ],
              [
                -0.022793948650360107,
                0.013637995347380638,
                -0.041966572403907776,
                -0.3259257376194,
                0.020842265337705612,
                -0.28175437450408936,
                0.2017139345407486
              ],
              [
                -0.03032863140106201,
                -0.044866517186164856,
                0.08941641449928284,
                -0.11126953363418579,
                -0.19211214780807495,
                -0.09674732387065887,
                -0.014400303363800049
              ],
              [
                0.27532872557640076,
                -0.12317291647195816,
                -0.10573498904705048,
                0.2814698815345764,
                -0.05840548127889633,
                -0.050600096583366394,
                -0.006551519967615604
              ],
              [
                0.09915733337402344,
                -0.21970206499099731,
                -0.19120696187019348,
                -0.023543581366539,
                -0.029830196872353554,
                0.16637969017028809,
                0.09175285696983337
              ],
              [
                -0.19172197580337524,
                -0.010935506783425808,
                0.0306527279317379,
                0.3926941454410553,
                0.1495712399482727,
                -0.173570454120636,
                0.2268151342868805
              ],
              [
                -0.1854363977909088,
                0.09365704655647278,
                -0.06594174355268478,
                -0.1693677008152008,
                -0.2999671399593353,
                -0.09062817692756653,
                0.12509065866470337
              ],
              [
                -0.17734622955322266,
                -0.24627220630645752,
                0.10448990762233734,
                -0.05480587109923363,
                0.06195655092597008,
                0.11160571873188019,
                0.2587168216705322
              ],
              [
                0.18998339772224426,
                -0.048972077667713165,
                -0.11344913393259048,
                0.3291308879852295,
                0.2739592492580414,
                -0.04137178882956505,
                0.195759117603302
              ],
              [
                0.2796143591403961,
                -0.15303468704223633,
                -0.13394439220428467,
                0.16882723569869995,
                0.2920016646385193,
                -0.26747363805770874,
                -0.016578340902924538
              ],
              [
                -0.20613066852092743,
                -0.21633385121822357,
                0.015495888888835907,
                -0.05098291113972664,
                0.11505884677171707,
                -0.25462740659713745,
                0.05478447303175926
              ],
              [
                0.21715576946735382,
                0.14320071041584015,
                0.21235434710979462,
                0.017842691391706467,
                0.32767876982688904,
                0.14939559996128082,
                -0.07246428728103638
              ],
              [
                -0.1352081298828125,
                0.19776813685894012,
                0.12130388617515564,
                0.1805964708328247,
                0.24890026450157166,
                0.14693698287010193,
                0.12768884003162384
              ],
              [
                -0.2773832380771637,
                0.14960843324661255,
                0.1087985634803772,
                0.23655763268470764,
                0.1915443241596222,
                -0.025101542472839355,
                -0.02618342638015747
              ],
              [
                -0.2804086208343506,
                -0.12428297102451324,
                -0.06320948898792267,
                -0.12564308941364288,
                0.28629663586616516,
                0.23593047261238098,
                -0.03385645151138306
              ],
              [
                -0.174647256731987,
                0.17760831117630005,
                -0.18228933215141296,
                0.3171648681163788,
                0.3192841410636902,
                0.23834842443466187,
                0.29464977979660034
              ],
              [
                0.06528617441654205,
                0.03346432000398636,
                0.06691012531518936,
                0.01053424458950758,
                0.0187939815223217,
                0.014746006578207016,
                0.08934256434440613
              ],
              [
                0.14429399371147156,
                -0.1791277676820755,
                -0.08368468284606934,
                -0.04166729375720024,
                0.2579074800014496,
                -0.02081177569925785,
                -0.06794292479753494
              ],
              [
                0.1367446929216385,
                0.20304623246192932,
                -0.1939723938703537,
                0.09294699132442474,
                0.17835479974746704,
                0.14471760392189026,
                0.06094270944595337
              ],
              [
                -0.057355284690856934,
                0.04448294639587402,
                -0.06134454905986786,
                0.16401329636573792,
                -0.23351484537124634,
                -0.2747969925403595,
                -0.2425866276025772
              ],
              [
                -0.05431251600384712,
                0.258864164352417,
                -0.012591657228767872,
                -0.07709594070911407,
                -0.18089357018470764,
                -0.13886187970638275,
                0.08760157227516174
              ],
              [
                -0.10355494916439056,
                -0.09934923052787781,
                -0.11470168828964233,
                -0.27491703629493713,
                -0.23895791172981262,
                -0.02263885736465454,
                -0.23333802819252014
              ],
              [
                -0.05857372283935547,
                -0.1850605607032776,
                0.1098950207233429,
                0.04754236340522766,
                0.13771933317184448,
                -0.15120579302310944,
                -0.2680428922176361
              ],
              [
                -0.018670624122023582,
                0.130464106798172,
                -0.09174294769763947,
                0.13264250755310059,
                0.20759034156799316,
                -0.007993637584149837,
                0.18196651339530945
              ],
              [
                -0.10016652941703796,
                -0.17828316986560822,
                0.26111945509910583,
                0.25837060809135437,
                -0.2331840991973877,
                0.24025794863700867,
                -0.07925434410572052
              ],
              [
                0.2580609619617462,
                -0.04844474047422409,
                0.2420312464237213,
                -0.059802088886499405,
                -0.007323144003748894,
                -0.16282790899276733,
                -0.006141330115497112
              ],
              [
                -0.040895625948905945,
                0.01656639575958252,
                -0.12100592255592346,
                0.10170766711235046,
                -0.13979484140872955,
                -0.18927979469299316,
                -0.19606682658195496
              ],
              [
                0.2661706805229187,
                -0.28527408838272095,
                -0.2585885226726532,
                -0.1430564522743225,
                0.019863281399011612,
                -0.24876542389392853,
                0.27782943844795227
              ],
              [
                0.040583688765764236,
                -0.038344793021678925,
                0.09997245669364929,
                -0.32255521416664124,
                0.17176397144794464,
                -0.029302969574928284,
                0.14707732200622559
              ],
              [
                0.02411387674510479,
                0.292192280292511,
                0.043480124324560165,
                0.06705858558416367,
                0.16165022552013397,
                -0.2883652150630951,
                0.034384358674287796
              ],
              [
                -0.002165413461625576,
                0.0369226410984993,
                0.1867877095937729,
                0.04617755860090256,
                0.23400112986564636,
                0.058718662708997726,
                -0.07335985451936722
              ],
              [
                -0.14755205810070038,
                -0.016668617725372314,
                -0.19385823607444763,
                -0.04726320505142212,
                0.04866787791252136,
                0.1973206102848053,
                -0.18600794672966003
              ],
              [
                0.22191651165485382,
                0.02028586156666279,
                0.17585904896259308,
                -0.12397706508636475,
                0.14648614823818207,
                -0.18170064687728882,
                0.19548942148685455
              ],
              [
                -0.061009377241134644,
                -0.18790432810783386,
                0.010118257254362106,
                0.07640071213245392,
                0.16424037516117096,
                -0.34090396761894226,
                0.053874671459198
              ],
              [
                -0.07031701505184174,
                -0.06667235493659973,
                -0.12054730951786041,
                0.1592702567577362,
                -0.28343090415000916,
                0.04561629891395569,
                -0.020503729581832886
              ],
              [
                -0.12484502792358398,
                -0.16275851428508759,
                0.034433621913194656,
                0.09215816110372543,
                0.2881590723991394,
                0.23029647767543793,
                0.0464477613568306
              ],
              [
                -0.14444054663181305,
                -0.025221634656190872,
                -0.09482287615537643,
                0.056019846349954605,
                0.15627306699752808,
                -0.005825078580528498,
                0.28230154514312744
              ],
              [
                -0.13810551166534424,
                0.14797648787498474,
                -0.1508711725473404,
                0.21419742703437805,
                -0.21419544517993927,
                0.14627566933631897,
                -0.17413851618766785
              ],
              [
                -0.12324193120002747,
                0.07394597679376602,
                -0.3135394752025604,
                -0.012848298996686935,
                0.20774880051612854,
                -0.06608018279075623,
                0.2214972972869873
              ],
              [
                -0.22598302364349365,
                0.2635924518108368,
                -0.19621314108371735,
                -0.15575146675109863,
                -0.2873353362083435,
                -0.13859649002552032,
                -0.1654563844203949
              ],
              [
                0.18523690104484558,
                -0.2926281690597534,
                -0.22162781655788422,
                0.2997590899467468,
                -0.10801521688699722,
                0.1146281510591507,
                0.02850640006363392
              ],
              [
                -0.22477462887763977,
                0.07655090093612671,
                0.00492057204246521,
                0.09523695707321167,
                -0.24820062518119812,
                -0.15516892075538635,
                -0.24604852497577667
              ],
              [
                0.23711858689785004,
                -0.14162923395633698,
                0.22495321929454803,
                -0.15970754623413086,
                -0.055654533207416534,
                -0.34865057468414307,
                0.06025169789791107
              ],
              [
                -0.30521196126937866,
                -0.047847215086221695,
                0.28172755241394043,
                0.024249190464615822,
                -0.18542695045471191,
                -3.6086782347410917E-4,
                0.2393464893102646
              ],
              [
                -0.09344267845153809,
                -0.08744543790817261,
                -0.20295198261737823,
                0.14519132673740387,
                -0.1892157793045044,
                -0.07645430415868759,
                0.15692967176437378
              ],
              [
                0.28737521171569824,
                -0.25951606035232544,
                0.029290607199072838,
                0.05975355580449104,
                0.008828689344227314,
                -0.26166778802871704,
                0.0778074860572815
              ],
              [
                -0.08615371584892273,
                -0.017788009718060493,
                -0.05316692963242531,
                -0.06554359197616577,
                -0.17467401921749115,
                0.18043982982635498,
                0.12062474340200424
              ],
              [
                -0.012717753648757935,
                0.06786003708839417,
                -0.226596400141716,
                -0.18897941708564758,
                0.011039048433303833,
                0.15014642477035522,
                -0.2901097536087036
              ],
              [
                -0.34038016200065613,
                0.2447880655527115,
                -0.008820152841508389,
                0.027677901089191437,
                0.004135764203965664,
                0.05430474877357483,
                0.2561541199684143
              ],
              [
                -0.2704819142818451,
                0.25189080834388733,
                -0.19550231099128723,
                -0.1467904895544052,
                0.20520660281181335,
                0.13004106283187866,
                -0.20403945446014404
              ],
              [
                0.1933540552854538,
                0.03293554112315178,
                0.156987726688385,
                0.10276772826910019,
                -0.0647207647562027,
                0.050004396587610245,
                0.0687447339296341
              ],
              [
                -0.16272486746311188,
                0.13675156235694885,
                0.2624872028827667,
                0.2313268482685089,
                -0.04305008053779602,
                -0.2142108976840973,
                -0.01990249752998352
              ],
              [
                0.14078104496002197,
                0.024866178631782532,
                0.13695956766605377,
                -0.0074195219203829765,
                0.0014544741716235876,
                -0.36501821875572205,
                0.0022707681637257338
              ],
              [
                0.2784813940525055,
                -0.0523267537355423,
                -0.119579017162323,
                0.21093517541885376,
                0.035349152982234955,
                0.1789877712726593,
                -0.12732626497745514
              ],
              [
                0.013821542263031006,
                -0.13222873210906982,
                -0.012633935548365116,
                0.09396019577980042,
                0.1109297052025795,
                0.23027139902114868,
                0.26519110798835754
              ],
              [
                -0.13649651408195496,
                0.05060228705406189,
                0.17685499787330627,
                0.21834352612495422,
                0.2182028591632843,
                -0.10160696506500244,
                -0.090233713388443
              ],
              [
                0.20919695496559143,
                -0.12420875579118729,
                -0.26653599739074707,
                -0.1450558453798294,
                -0.1507781445980072,
                0.1606879085302353,
                0.00685101980343461
              ]
            ],
            "bias": [
              -0.05431012436747551,
              -0.0643024891614914,
              0.0,
              -0.057487793266773224,
              0.05987229943275452,
              0.060173481702804565,
              0.0,
              -1.3953779125586152E-4,
              -0.08658671379089355,
              0.0,
              0.07888390123844147,
              -0.07356447726488113,
              0.07174306362867355,
              -0.0818193331360817,
              -0.08051922172307968,
              0.0467381551861763,
              0.05405017361044884,
              -0.07649435102939606,
              0.07914647459983826,
              0.08616192638874054,
              0.0,
              0.0,
              0.07448747009038925,
              -0.08340897411108017,
              -0.016977401450276375,
              0.08469244837760925,
              0.0,
              0.07842593640089035,
              0.0,
              0.0,
              -0.010082796216011047,
              0.0,
              0.08353988826274872,
              0.0,
              -0.08329122513532639,
              -0.08347968757152557,
              0.06952925026416779,
              -0.02506997250020504,
              0.0,
              0.07345277070999146,
              -0.07729516923427582,
              0.0,
              0.02898690290749073,
              -0.0034217096399515867,
              0.0,
              -0.06614195555448532,
              0.0,
              0.05999169871211052,
              0.0,
              -0.07211970537900925,
              0.07988665252923965,
              0.049994174391031265,
              -0.039481863379478455,
              0.07878817617893219,
              0.0,
              0.06144815683364868,
              0.0,
              0.03675517812371254,
              0.0,
              -0.05323265120387077,
              -0.03341447561979294,
              -0.043113674968481064,
              0.0,
              0.07224768400192261
            ],
            "activation": "relu"
          },
          {
            "matrix": [
              [
                0.04001820087432861,
                -0.13029778003692627,
                -0.06863999366760254,
                -0.11723101139068604,
                -0.015055954456329346,
                0.17475014925003052,
                -0.091602623462677,
                -0.09544742107391357,
                0.08607631921768188,
                0.19732046127319336,
                -0.032100021839141846,
                -0.22155267000198364,
                0.08887606859207153,
                0.008324861526489258,
                -0.14864683151245117,
                -0.12787330150604248,
                0.05348879098892212,
                0.037162601947784424,
                -0.17931902408599854,
                0.08702504634857178,
                0.24999332427978516,
                -0.07644379138946533,
                -0.11692947149276733,
                -0.15249699354171753,
                -0.047557532787323,
                0.09053927659988403,
                0.14733439683914185,
                -0.1298811435699463,
                -0.004358410835266113,
                0.23695707321166992,
                0.13245642185211182,
                0.17372053861618042,
                -0.07029533386230469,
                -0.0343514084815979,
                -0.10544037818908691,
                -0.0311240553855896,
                -0.2332872748374939,
                -0.028342485427856445,
                -0.22733968496322632,
                -0.2126883864402771,
                -0.158305823802948,
                0.1476016640663147,
                0.242933452129364,
                -0.10298585891723633,
                -0.009656131267547607,
                -0.05313742160797119,
                -0.007203459739685059,
                -0.19076460599899292,
                0.15190881490707397,
                -0.06903332471847534,
                -0.05946880578994751,
                -0.014228880405426025,
                0.23917484283447266,
                0.2217036485671997,
                -0.21236109733581543,
                0.17561018466949463,
                0.10299080610275269,
                -0.03413963317871094,
                0.24228018522262573,
                -0.03513228893280029,
                0.1445968747138977,
                0.015836000442504883,
                0.12881094217300415,
                0.2356487512588501
              ],
              [
                -0.08850568532943726,
                0.20329055190086365,
                -0.14275461435317993,
                0.1998637318611145,
                -0.17790350317955017,
                0.1148078665137291,
                -0.1586323380470276,
                -0.2088918685913086,
                0.2151857614517212,
                0.049667954444885254,
                0.0024819583632051945,
                0.006649602670222521,
                -0.04955907166004181,
                -0.24225634336471558,
                -0.008129868656396866,
                0.04054367542266846,
                0.0073090409860014915,
                0.08232760429382324,
                -0.05870644003152847,
                0.0311909019947052,
                0.09180361032485962,
                -0.13261455297470093,
                -0.22190487384796143,
                -0.19439275562763214,
                0.17939618229866028,
                0.0198354572057724,
                -0.006417274475097656,
                0.0028932897839695215,
                -0.17168164253234863,
                0.07093000411987305,
                0.054308418184518814,
                0.032822370529174805,
                -0.11263452470302582,
                0.22543329000473022,
                0.02936335653066635,
                0.09002379328012466,
                -0.16585657000541687,
                -0.13066792488098145,
                0.16675984859466553,
                -0.12950176000595093,
                0.19523805379867554,
                0.03578448295593262,
                0.07013309001922607,
                -5.075880835647695E-5,
                0.2208574414253235,
                -0.18901218473911285,
                0.05284959077835083,
                -0.11363035440444946,
                -0.045411109924316406,
                -0.0557858981192112,
                -5.789863062091172E-4,
                0.21288809180259705,
                -0.20529714226722717,
                0.003073436673730612,
                0.22599971294403076,
                -0.15679597854614258,
                0.07061070203781128,
                0.06618943810462952,
                -0.1598415970802307,
                0.08143254369497299,
                -0.12733545899391174,
                0.008763067424297333,
                -0.06765162944793701,
                0.15495403110980988
              ],
              [
                0.13662981986999512,
                0.13836263120174408,
                0.04596400260925293,
                0.048422329127788544,
                0.12744802236557007,
                -0.1043514683842659,
                0.199895441532135,
                -0.1219353973865509,
                0.18739353120326996,
                0.21841925382614136,
                -0.16132761538028717,
                0.12466003745794296,
                0.22021085023880005,
                -0.015454208478331566,
                0.0904349535703659,
                -0.25047945976257324,
                -0.07720781862735748,
                -0.032010920345783234,
                0.22597138583660126,
                -0.24624185264110565,
                0.01857137680053711,
                0.18114984035491943,
                0.07349071651697159,
                0.020315740257501602,
                -0.18994887173175812,
                0.012815369293093681,
                -0.16552692651748657,
                -0.2337491810321808,
                0.1444157361984253,
                0.04443204402923584,
                -0.08906396478414536,
                0.0031810402870178223,
                0.01467825099825859,
                0.050843119621276855,
                0.04288759455084801,
                0.19382324814796448,
                -0.10413705557584763,
                0.06661874055862427,
                -0.021668195724487305,
                0.019706513732671738,
                0.1353081315755844,
                0.16466283798217773,
                -0.1899232417345047,
                0.1318858414888382,
                -0.18337446451187134,
                0.09297414869070053,
                -0.17374521493911743,
                -0.17498016357421875,
                -0.013793587684631348,
                0.13131341338157654,
                0.0492798276245594,
                0.17903012037277222,
                0.024043025448918343,
                0.07582627236843109,
                -0.04866999387741089,
                -0.011279565282166004,
                -0.11496198177337646,
                -0.1951732486486435,
                -0.10526978969573975,
                0.16167373955249786,
                -0.09305190294981003,
                0.1963292956352234,
                -0.1189812421798706,
                -0.0376703180372715
              ],
              [
                -0.11830192059278488,
                -0.15356293320655823,
                0.16470879316329956,
                -0.2317429631948471,
                -0.22896242141723633,
                -0.2056538164615631,
                0.19813954830169678,
                0.23867148160934448,
                -0.15847204625606537,
                0.1848796010017395,
                -0.05891041085124016,
                -1.4035616186447442E-4,
                -0.14472198486328125,
                -0.21756058931350708,
                -0.07571381330490112,
                0.03114999085664749,
                0.0733192190527916,
                -0.1739192008972168,
                0.249787375330925,
                0.2085953950881958,
                -0.2414749264717102,
                -0.20032894611358643,
                0.24890577793121338,
                0.06984381377696991,
                0.16364142298698425,
                0.15445221960544586,
                0.006869256496429443,
                -0.116709403693676,
                -0.014606952667236328,
                -0.16351133584976196,
                -0.09794776886701584,
                -0.2228589653968811,
                0.19518207013607025,
                0.15392285585403442,
                -0.17317873239517212,
                -0.17803896963596344,
                0.19240914285182953,
                -0.18815752863883972,
                -0.0992845892906189,
                -0.09221528470516205,
                -0.05453985929489136,
                0.24769800901412964,
                0.14273124933242798,
                0.004128565080463886,
                0.03908038139343262,
                -0.03118918091058731,
                0.18412256240844727,
                0.09586674720048904,
                0.1580774188041687,
                0.14040206372737885,
                -0.15946745872497559,
                0.05144030973315239,
                -0.03850769251585007,
                0.01036602258682251,
                0.01477426290512085,
                0.010760188102722168,
                -0.15942031145095825,
                0.2204560935497284,
                0.07721060514450073,
                -0.03534838929772377,
                -0.164512038230896,
                -0.07374709844589233,
                -0.01857125759124756,
                0.015478881075978279
              ],
              [
                0.0546952486038208,
                0.13935083150863647,
                0.1857846975326538,
                -0.022225916385650635,
                0.2316228747367859,
                0.1302480697631836,
                -0.23081868886947632,
                0.17698711156845093,
                -0.16567778587341309,
                -0.24905943870544434,
                -0.09634792804718018,
                -0.1893444061279297,
                -0.09599059820175171,
                -0.030008137226104736,
                -0.04779314994812012,
                -0.02503657341003418,
                -0.010852158069610596,
                -0.22764688730239868,
                0.06628549098968506,
                -0.18913543224334717,
                -0.1954660415649414,
                0.042151033878326416,
                -0.17530441284179688,
                -0.10386532545089722,
                -0.18276017904281616,
                -0.19926750659942627,
                0.224664568901062,
                -0.16333001852035522,
                0.10548049211502075,
                0.008949577808380127,
                0.11389833688735962,
                0.1592656970024109,
                -0.06453913450241089,
                -0.038768768310546875,
                -0.2219337821006775,
                0.22569411993026733,
                0.19359344244003296,
                0.17723393440246582,
                0.033045172691345215,
                -0.17290520668029785,
                -0.05236536264419556,
                -0.09994959831237793,
                -0.10106766223907471,
                -0.11731523275375366,
                -0.13915449380874634,
                0.2372366189956665,
                0.16609513759613037,
                -0.0514950156211853,
                -0.21249961853027344,
                0.24081188440322876,
                0.20698308944702148,
                -0.23106610774993896,
                0.053610920906066895,
                0.002883434295654297,
                -0.0657002329826355,
                -0.2074705958366394,
                0.13392072916030884,
                0.10522007942199707,
                -0.15627050399780273,
                0.009511709213256836,
                0.21585601568222046,
                -0.07615220546722412,
                -0.10105788707733154,
                0.15897411108016968
              ],
              [
                -0.2515731155872345,
                0.15265332162380219,
                0.24649381637573242,
                0.11771611124277115,
                -0.02801910974085331,
                0.13548998534679413,
                0.047602832317352295,
                0.056504253298044205,
                0.14077498018741608,
                -8.006691932678223E-4,
                -0.24965424835681915,
                -0.05123130604624748,
                0.05400016903877258,
                -0.04502694308757782,
                -0.022218845784664154,
                -0.0065992847084999084,
                0.06153588369488716,
                -0.10644587874412537,
                0.10966312140226364,
                0.16293589770793915,
                0.15603965520858765,
                -0.14588427543640137,
                0.14384327828884125,
                0.2061740607023239,
                0.10261715203523636,
                0.17327070236206055,
                0.15758675336837769,
                0.23045720160007477,
                0.20938968658447266,
                0.05979788303375244,
                0.15632182359695435,
                0.15020805597305298,
                0.036900538951158524,
                -0.16220766305923462,
                0.043675269931554794,
                -0.2075362652540207,
                -0.015206136740744114,
                -0.04053741320967674,
                -0.24094319343566895,
                0.02612069621682167,
                -0.08041069656610489,
                -0.04313474893569946,
                -0.22066864371299744,
                0.01408140268176794,
                -0.19702929258346558,
                0.1782688945531845,
                -0.04594904184341431,
                0.07035072892904282,
                -3.1882524490356445E-4,
                -0.17837584018707275,
                -0.16024139523506165,
                -0.09588319808244705,
                -0.13115592300891876,
                0.2294241040945053,
                0.1541549563407898,
                0.21032118797302246,
                -0.011882424354553223,
                -0.10154236853122711,
                0.11006224155426025,
                0.21080473065376282,
                -0.014276601374149323,
                -0.12152035534381866,
                0.016396045684814453,
                0.09742841869592667
              ],
              [
                -0.0962066501379013,
                -0.20245249569416046,
                -0.04716604948043823,
                -0.13035662472248077,
                -0.1487414836883545,
                -0.008250810205936432,
                0.16978776454925537,
                0.17397332191467285,
                -0.26048383116722107,
                0.05403345823287964,
                0.0399601049721241,
                0.20081345736980438,
                -0.08778926730155945,
                -0.023144960403442383,
                -0.1178167462348938,
                -0.013034212402999401,
                0.005025352817028761,
                0.122425377368927,
                0.1056804433465004,
                -0.008920958265662193,
                -0.17342811822891235,
                -0.043620169162750244,
                -0.2240506261587143,
                0.15150398015975952,
                -0.05921008810400963,
                -0.19362913072109222,
                0.12198799848556519,
                0.15673959255218506,
                -0.008462607860565186,
                0.22458338737487793,
                -0.09466908127069473,
                -0.04626375436782837,
                0.0890631228685379,
                0.2048284411430359,
                -0.18199355900287628,
                0.045174404978752136,
                -0.017073459923267365,
                -0.08149607479572296,
                -0.08485156297683716,
                0.1473238170146942,
                0.14786642789840698,
                -0.06766140460968018,
                0.09331393241882324,
                -0.07744093984365463,
                0.11110657453536987,
                -0.10721784830093384,
                -0.19050484895706177,
                -0.16058744490146637,
                0.17138254642486572,
                -0.05938296020030975,
                -0.2273101806640625,
                0.11630276590585709,
                0.19558623433113098,
                0.20550784468650818,
                -0.138990581035614,
                -0.21199274063110352,
                0.24671530723571777,
                -0.05783943459391594,
                0.13133424520492554,
                0.05424511060118675,
                0.14123345911502838,
                -0.2616581916809082,
                -0.019729971885681152,
                -0.09629292041063309
              ],
              [
                0.12128835916519165,
                -0.15213614702224731,
                0.22620630264282227,
                -0.19525760412216187,
                -0.043133556842803955,
                -0.24467527866363525,
                -0.06435972452163696,
                -0.19563817977905273,
                -0.1384473443031311,
                0.19484007358551025,
                -0.19718992710113525,
                0.006541788578033447,
                -0.03573709726333618,
                0.18620532751083374,
                -0.01385563611984253,
                -0.21627140045166016,
                -0.0033485889434814453,
                -0.008765459060668945,
                -0.21168029308319092,
                0.13273125886917114,
                0.23805129528045654,
                0.2299952507019043,
                -0.01018291711807251,
                -0.07017910480499268,
                -0.018405675888061523,
                0.11564821004867554,
                0.17767655849456787,
                0.23416811227798462,
                -0.2088271975517273,
                -0.04164731502532959,
                0.12164586782455444,
                -0.16756820678710938,
                0.2043272852897644,
                0.03978806734085083,
                0.208548903465271,
                3.820657730102539E-4,
                -0.12966060638427734,
                -0.08683997392654419,
                -0.2194780707359314,
                -0.24811702966690063,
                0.057767271995544434,
                -0.16430038213729858,
                0.018343687057495117,
                -0.13111227750778198,
                -0.1464894413948059,
                -0.008730709552764893,
                -0.1260555386543274,
                0.22501146793365479,
                -0.18699389696121216,
                -0.09118521213531494,
                -0.1888411045074463,
                -0.24405056238174438,
                0.1751255989074707,
                0.20067399740219116,
                -0.004904270172119141,
                -0.20649898052215576,
                -0.0013704299926757812,
                0.16958671808242798,
                -0.10233539342880249,
                -0.22277992963790894,
                0.012738525867462158,
                -0.2139788269996643,
                -0.09467130899429321,
                0.042279839515686035
              ],
              [
                -0.18134213984012604,
                0.03140740469098091,
                -0.22983968257904053,
                -0.05901570990681648,
                0.14533323049545288,
                -0.12013563513755798,
                -0.1296425461769104,
                -0.1715344786643982,
                -0.06980723887681961,
                -0.19425207376480103,
                -0.05408834293484688,
                0.09932627528905869,
                -0.19399648904800415,
                -0.12289746850728989,
                -0.04961182922124863,
                0.20998261868953705,
                0.0355801023542881,
                0.1846074014902115,
                0.27090510725975037,
                0.06560388207435608,
                0.015994489192962646,
                -0.03814011812210083,
                0.04905685782432556,
                -0.14505800604820251,
                0.25392863154411316,
                -0.05214719846844673,
                -0.11245137453079224,
                -0.1866636723279953,
                -0.03275787830352783,
                -0.13616418838500977,
                -0.17589856684207916,
                0.04379087686538696,
                0.11270160228013992,
                -0.11152666807174683,
                -0.20776799321174622,
                -0.12594087421894073,
                0.006493019871413708,
                0.04335132986307144,
                -0.23448026180267334,
                0.13470445573329926,
                -0.169782355427742,
                0.14737337827682495,
                0.20749033987522125,
                0.22976183891296387,
                -0.08137404918670654,
                0.1880117803812027,
                -0.05191540718078613,
                0.0206687580794096,
                0.04947882890701294,
                0.03627857565879822,
                -0.042942434549331665,
                -0.011636550538241863,
                0.2215665727853775,
                0.12010762840509415,
                -0.1993216872215271,
                0.04873460531234741,
                0.02668309211730957,
                0.17809665203094482,
                -0.06973898410797119,
                -0.04308047145605087,
                -0.13620470464229584,
                -0.1771976202726364,
                0.09778040647506714,
                0.11390040814876556
              ],
              [
                -0.18060636520385742,
                -0.06705403327941895,
                0.02865082025527954,
                0.24022501707077026,
                0.12600177526474,
                -0.19544559717178345,
                0.21972423791885376,
                -0.2035461664199829,
                0.12211698293685913,
                0.13988465070724487,
                -0.18952292203903198,
                0.08689641952514648,
                -0.23598551750183105,
                -0.2424716353416443,
                0.20675444602966309,
                -0.023848295211791992,
                0.039693474769592285,
                -0.0022131800651550293,
                0.11925363540649414,
                0.2199530005455017,
                0.07001590728759766,
                0.15359503030776978,
                -0.18440574407577515,
                -0.2399533987045288,
                0.059618473052978516,
                -0.20173579454421997,
                0.18606621026992798,
                0.08416491746902466,
                -0.10779440402984619,
                0.19982171058654785,
                0.08071780204772949,
                0.1360744833946228,
                -0.10672277212142944,
                0.2444303035736084,
                -0.108936607837677,
                -0.037015557289123535,
                0.0170443058013916,
                -0.2102525234222412,
                0.10787129402160645,
                -0.08712249994277954,
                0.10421586036682129,
                0.12499874830245972,
                -0.17901360988616943,
                0.0972142219543457,
                -0.2298462986946106,
                -0.10356169939041138,
                0.2040083408355713,
                -0.02478128671646118,
                0.13646149635314941,
                0.23208683729171753,
                -0.2137683629989624,
                0.16239333152770996,
                -0.158047616481781,
                -0.23991215229034424,
                0.07065063714981079,
                0.15835845470428467,
                -0.14060884714126587,
                -0.1536427140235901,
                0.16138112545013428,
                0.11074042320251465,
                0.14344000816345215,
                -0.22644340991973877,
                0.22331994771957397,
                0.020487070083618164
              ],
              [
                -0.017648866400122643,
                -0.10706306248903275,
                0.01865684986114502,
                0.23929062485694885,
                -0.003277546027675271,
                -0.03850819915533066,
                0.09266090393066406,
                0.24541807174682617,
                -0.08548600971698761,
                -0.0034616589546203613,
                0.15988920629024506,
                0.15616825222969055,
                0.13341620564460754,
                -0.010550959967076778,
                -0.09151874482631683,
                0.03715936094522476,
                0.20604220032691956,
                -0.19108416140079498,
                0.18500544130802155,
                0.2462081015110016,
                0.21610361337661743,
                -0.1279270052909851,
                0.06079433485865593,
                -0.12500067055225372,
                -0.1547500640153885,
                -0.18172219395637512,
                -0.21900463104248047,
                0.17708399891853333,
                0.1999807357788086,
                -0.11243271827697754,
                0.1772404909133911,
                0.12259113788604736,
                0.06448803097009659,
                0.04541337490081787,
                -0.051523566246032715,
                -0.159714937210083,
                0.13562659919261932,
                -0.07464618980884552,
                0.10428285598754883,
                -0.07694897800683975,
                -0.20831812918186188,
                0.15562766790390015,
                -0.013348717242479324,
                0.05493028834462166,
                -0.08150923252105713,
                0.014651648700237274,
                0.20947134494781494,
                -0.17699842154979706,
                0.1627001166343689,
                0.23383362591266632,
                0.2031089812517166,
                -0.18581263720989227,
                -0.01078878901898861,
                0.15813012421131134,
                -0.12839406728744507,
                -0.19746601581573486,
                0.19973760843276978,
                0.08799286186695099,
                -0.18462693691253662,
                0.053500477224588394,
                0.04108741134405136,
                -0.010981407947838306,
                0.13200539350509644,
                0.18937425315380096
              ],
              [
                0.00883018970489502,
                -0.18889188766479492,
                -0.00696408748626709,
                0.15283942222595215,
                0.16654610633850098,
                -0.08702820539474487,
                -0.17455410957336426,
                -0.2451896071434021,
                0.026423215866088867,
                0.15313094854354858,
                0.06070786714553833,
                -0.19992101192474365,
                -0.07928448915481567,
                -0.21337687969207764,
                0.056540071964263916,
                -0.0072359442710876465,
                -0.18962246179580688,
                0.08309829235076904,
                -0.09396106004714966,
                -0.18401694297790527,
                -0.2328641414642334,
                -0.12598931789398193,
                0.11847341060638428,
                0.190412700176239,
                -0.11138546466827393,
                -0.13254958391189575,
                -0.14806300401687622,
                -0.1513526439666748,
                -0.22345435619354248,
                -0.024769842624664307,
                -0.007354855537414551,
                0.1062653660774231,
                0.05181962251663208,
                -0.014383673667907715,
                -0.1861259937286377,
                -0.18192821741104126,
                0.10644960403442383,
                0.10575264692306519,
                -0.040449678897857666,
                0.0703083872795105,
                0.1949859857559204,
                0.19734185934066772,
                0.11035442352294922,
                -0.009716153144836426,
                -0.09322911500930786,
                -0.0909724235534668,
                0.053086698055267334,
                -0.15205281972885132,
                -0.22331321239471436,
                -0.0015445351600646973,
                0.15576064586639404,
                0.22549676895141602,
                0.009623944759368896,
                0.10205197334289551,
                -0.21028810739517212,
                0.049474358558654785,
                0.19022351503372192,
                -0.24255967140197754,
                0.2206737995147705,
                -0.24103713035583496,
                -0.079800546169281,
                0.09474444389343262,
                -0.12224525213241577,
                0.1665460467338562
              ],
              [
                0.0014576911926269531,
                0.10520481318235397,
                -0.0752992033958435,
                -0.19449518620967865,
                0.15938332676887512,
                0.08010807633399963,
                -0.03801929950714111,
                0.10938391834497452,
                0.0971250832080841,
                0.1542941927909851,
                -0.2139803171157837,
                -0.21962089836597443,
                -0.050747353583574295,
                0.10136626660823822,
                0.05028741806745529,
                0.03401292860507965,
                -0.22469669580459595,
                -0.004444967024028301,
                -0.01773984171450138,
                -0.19918587803840637,
                0.060725629329681396,
                0.2161542773246765,
                -0.2026822715997696,
                -0.030411818996071815,
                0.21321582794189453,
                -0.0519232340157032,
                -0.05765038728713989,
                -0.1930745542049408,
                -0.1934872269630432,
                -0.167191743850708,
                -0.06902025640010834,
                -0.10525602102279663,
                -0.019433854147791862,
                -0.05637270212173462,
                0.12294446676969528,
                0.15743042528629303,
                0.10330186784267426,
                -0.16809266805648804,
                -0.0636557936668396,
                -0.05415744706988335,
                0.10993031412363052,
                0.22243255376815796,
                0.06021720543503761,
                -0.17200224101543427,
                0.09942507743835449,
                -0.05934635549783707,
                0.018700599670410156,
                -0.11484602093696594,
                -0.1310294270515442,
                -0.1770436018705368,
                -0.03293820098042488,
                -0.10107613354921341,
                0.11889654397964478,
                0.18725267052650452,
                -0.18002068996429443,
                0.041494183242321014,
                0.1669389009475708,
                0.08012299239635468,
                -0.23363375663757324,
                0.07387661188840866,
                -0.23580814898014069,
                0.12356723099946976,
                0.11299926042556763,
                0.14786115288734436
              ],
              [
                -0.15413478016853333,
                0.1424492597579956,
                -0.23918592929840088,
                0.08186325430870056,
                -0.2252064347267151,
                -0.14074641466140747,
                -0.2299555540084839,
                0.1465609073638916,
                0.010279838927090168,
                -0.2316523790359497,
                0.24026058614253998,
                0.029248885810375214,
                -0.19594037532806396,
                -0.0060270712710917,
                0.18200163543224335,
                0.10376668721437454,
                -0.16419288516044617,
                0.10668513923883438,
                0.21631591022014618,
                -0.23413318395614624,
                0.15200984477996826,
                -0.14671897888183594,
                0.08977649360895157,
                0.17203933000564575,
                -0.07378661632537842,
                -0.22405220568180084,
                0.23475730419158936,
                -0.21454070508480072,
                -0.03467273712158203,
                -0.18173420429229736,
                -0.002200288465246558,
                0.1247512698173523,
                0.17400121688842773,
                -0.03877139091491699,
                0.14803342521190643,
                0.1496085524559021,
                0.11760241538286209,
                -0.08913331478834152,
                0.052951812744140625,
                0.028474988415837288,
                -0.19732600450515747,
                -0.02766209840774536,
                -0.21911630034446716,
                -0.0674246996641159,
                -0.1367577314376831,
                0.05649568513035774,
                -0.02814185619354248,
                0.09307710826396942,
                -0.20905762910842896,
                0.11845473200082779,
                -0.06660046428442001,
                -0.016399379819631577,
                -0.08570224791765213,
                -0.24446645379066467,
                -0.13664358854293823,
                0.09464244544506073,
                -0.1742764115333557,
                -0.09466993808746338,
                0.1319965124130249,
                0.173826664686203,
                0.16138823330402374,
                0.022782975807785988,
                -0.17964404821395874,
                0.2171117514371872
              ],
              [
                0.11487316340208054,
                -0.23048341274261475,
                0.060066819190979004,
                0.21971172094345093,
                0.0963556170463562,
                -0.14631754159927368,
                0.128034770488739,
                0.018634259700775146,
                -0.1451810598373413,
                0.06886279582977295,
                0.08217504620552063,
                0.1519794464111328,
                0.048952579498291016,
                -0.23192954063415527,
                0.100799560546875,
                0.05280650407075882,
                0.19121454656124115,
                0.21094930171966553,
                -0.19365279376506805,
                -0.07363754510879517,
                0.1406114101409912,
                -0.24332934617996216,
                -0.16363471746444702,
                0.03138246387243271,
                -0.11563315242528915,
                -0.17273519933223724,
                0.08229386806488037,
                -0.20131497085094452,
                -0.15038323402404785,
                -0.06822150945663452,
                -0.0794951394200325,
                0.12863457202911377,
                -0.13328143954277039,
                -0.1842278242111206,
                0.10741496831178665,
                0.0353509820997715,
                -0.11020571738481522,
                -0.16860777139663696,
                -0.1556982398033142,
                -0.1301538646221161,
                0.036295413970947266,
                0.02722311019897461,
                0.18539726734161377,
                0.05747443437576294,
                -0.03405791521072388,
                -0.08896946907043457,
                0.23128139972686768,
                0.06203591823577881,
                0.12501466274261475,
                0.14669160544872284,
                -0.2401600480079651,
                -0.07679500430822372,
                -0.15782403945922852,
                0.04040265083312988,
                0.04019510746002197,
                0.003941476345062256,
                -0.13547265529632568,
                0.07566190510988235,
                -0.10753518342971802,
                -0.1043008491396904,
                -0.2337031215429306,
                0.04136538878083229,
                -0.05721408128738403,
                0.13769471645355225
              ],
              [
                0.21364426612854004,
                0.08762359619140625,
                -0.2178574800491333,
                -0.2449648380279541,
                0.17920857667922974,
                0.1873059868812561,
                0.043611228466033936,
                -0.08121621608734131,
                0.038552045822143555,
                -0.12334352731704712,
                0.058959126472473145,
                -0.11469405889511108,
                0.18458718061447144,
                -0.003959000110626221,
                0.08270919322967529,
                -0.1028822660446167,
                -0.06850427389144897,
                0.005773425102233887,
                0.14267057180404663,
                0.19920897483825684,
                0.1291692852973938,
                0.08736759424209595,
                -0.08257776498794556,
                -0.02718186378479004,
                -0.08323836326599121,
                -0.10275143384933472,
                0.16629385948181152,
                -0.046466290950775146,
                -0.050618112087249756,
                -0.2140377163887024,
                -0.23173141479492188,
                -0.06530624628067017,
                0.05675232410430908,
                -0.10116720199584961,
                0.1610700488090515,
                -0.2228773832321167,
                0.06575131416320801,
                0.06692922115325928,
                0.0351715087890625,
                -0.1880071759223938,
                0.24461227655410767,
                -0.07870829105377197,
                0.13754802942276,
                -0.12751662731170654,
                -0.022666215896606445,
                0.14526230096817017,
                -0.09834134578704834,
                0.20352548360824585,
                0.21839994192123413,
                -0.23220056295394897,
                -0.018264412879943848,
                -0.08869612216949463,
                -0.12127625942230225,
                -0.24280261993408203,
                0.1448359489440918,
                0.04011499881744385,
                0.07398587465286255,
                0.056475043296813965,
                -0.1047583818435669,
                0.15733379125595093,
                0.004672110080718994,
                -0.08222079277038574,
                0.04433828592300415,
                -0.1673220992088318
              ],
              [
                -0.20696425437927246,
                0.13659203052520752,
                -0.14759576320648193,
                0.2173108458518982,
                -0.05450530722737312,
                0.031059615314006805,
                0.10616666078567505,
                -0.07617466896772385,
                0.15207529067993164,
                0.12051457166671753,
                -0.0938388779759407,
                0.2208712100982666,
                -0.2178996503353119,
                0.028497125953435898,
                0.17672936618328094,
                -0.037144098430871964,
                -0.06522276997566223,
                -0.1025114580988884,
                -0.1320764273405075,
                0.0952199175953865,
                0.03547513484954834,
                0.02660006284713745,
                -0.20144549012184143,
                -0.20158852636814117,
                -0.18816456198692322,
                -0.07300034910440445,
                0.220983624458313,
                -0.0808689072728157,
                -0.01116257905960083,
                -0.0361781120300293,
                0.20834368467330933,
                0.05600458383560181,
                0.015249538235366344,
                -0.1844785213470459,
                -0.06195807456970215,
                0.20547133684158325,
                -0.10154112428426743,
                -0.1005547046661377,
                -0.10524618625640869,
                -0.0907779112458229,
                0.24574574828147888,
                0.04083436727523804,
                0.2450476884841919,
                0.1683804988861084,
                -0.14258021116256714,
                0.1309201717376709,
                0.14026153087615967,
                0.18113112449645996,
                -0.19316226243972778,
                0.06805428862571716,
                -0.23628173768520355,
                0.019214194267988205,
                -0.18207994103431702,
                0.19028489291667938,
                0.037963032722473145,
                0.25116151571273804,
                -0.22553342580795288,
                -0.14415355026721954,
                -0.02584022283554077,
                0.13043515384197235,
                -0.17936967313289642,
                0.13540217280387878,
                -0.18064230680465698,
                -0.1552882045507431
              ],
              [
                0.23500238358974457,
                0.008678872138261795,
                -0.18836236000061035,
                -0.10092433542013168,
                -0.033796653151512146,
                -0.06715385615825653,
                0.09571468830108643,
                0.14590461552143097,
                -0.20407187938690186,
                0.1287318468093872,
                0.16274651885032654,
                -0.12288778275251389,
                0.16045156121253967,
                0.02834758721292019,
                0.21895086765289307,
                0.10989183187484741,
                0.17327384650707245,
                -0.029190631583333015,
                0.10990885645151138,
                -0.23648737370967865,
                -0.09022045135498047,
                -0.24155569076538086,
                0.20684491097927094,
                0.14724281430244446,
                0.2506782114505768,
                0.04824576899409294,
                -0.008527636528015137,
                0.0242282934486866,
                -0.18291401863098145,
                0.15958726406097412,
                0.2325349897146225,
                0.13091957569122314,
                0.21257129311561584,
                0.003345966339111328,
                -0.09120921045541763,
                0.04208400472998619,
                -0.07037796825170517,
                -0.05860866978764534,
                -0.017402946949005127,
                0.015097664669156075,
                0.21833275258541107,
                0.06503623723983765,
                -0.11053920537233353,
                -0.0012109472882002592,
                -0.1714445948600769,
                -0.11090569943189621,
                -0.150029718875885,
                0.22043338418006897,
                0.21966838836669922,
                -0.1946791708469391,
                0.2531416118144989,
                0.2384476363658905,
                0.1333092749118805,
                -0.2364240139722824,
                -0.11561626195907593,
                -0.1932196468114853,
                -0.09996932744979858,
                -0.23949147760868073,
                -0.18336093425750732,
                0.2226925641298294,
                -0.12654902040958405,
                0.08340036123991013,
                0.09314000606536865,
                0.11442994326353073
              ],
              [
                -0.04307812452316284,
                0.18104267120361328,
                -0.10175448656082153,
                -0.0726684182882309,
                0.006029885727912188,
                -0.05729563161730766,
                0.14504021406173706,
                0.1299968957901001,
                0.0643826499581337,
                0.1970638632774353,
                0.006801976822316647,
                -0.08434749394655228,
                0.1554965078830719,
                0.23927025496959686,
                0.22931477427482605,
                -0.15463261306285858,
                -0.2400333732366562,
                -0.21137471497058868,
                0.11862647533416748,
                0.033886514604091644,
                0.03462928533554077,
                -0.1114463210105896,
                -0.07605899125337601,
                0.15973280370235443,
                0.22603745758533478,
                0.17927050590515137,
                -0.23463988304138184,
                0.2343706637620926,
                0.055073678493499756,
                0.2449655532836914,
                -0.09445080161094666,
                0.23558831214904785,
                -0.06882140040397644,
                0.18554562330245972,
                -0.053925853222608566,
                0.14274464547634125,
                0.1352722942829132,
                0.06406116485595703,
                0.05396223068237305,
                0.062063004821538925,
                0.04282757639884949,
                0.23725676536560059,
                -0.21690960228443146,
                -0.012523125857114792,
                -0.15597879886627197,
                -0.011938424780964851,
                0.095059335231781,
                -0.14747880399227142,
                -0.1786903738975525,
                -0.035857222974300385,
                0.09664807468652725,
                -0.07769633084535599,
                -0.20629538595676422,
                -0.2315785437822342,
                -0.11617517471313477,
                -0.23398922383785248,
                0.14982742071151733,
                -0.020496100187301636,
                0.10039794445037842,
                0.12976546585559845,
                -0.1114208921790123,
                0.1715998351573944,
                0.040576815605163574,
                -0.13517923653125763
              ],
              [
                -0.030713319778442383,
                -0.24637371301651,
                -0.034278154373168945,
                -0.0955280065536499,
                -0.23515701293945312,
                0.025574862957000732,
                0.1530093550682068,
                -0.18490725755691528,
                -0.2390032410621643,
                -0.10561776161193848,
                -0.026503801345825195,
                0.011974573135375977,
                -0.11125218868255615,
                0.14104431867599487,
                0.20954501628875732,
                -0.14659857749938965,
                -0.16390889883041382,
                -0.2429710030555725,
                -0.21836209297180176,
                0.02064722776412964,
                0.0074103474617004395,
                -0.1974954605102539,
                -0.2402852177619934,
                0.030213236808776855,
                0.17085695266723633,
                0.15568506717681885,
                -0.05806171894073486,
                0.23832422494888306,
                -0.021686553955078125,
                0.08206194639205933,
                -0.1862751841545105,
                0.11727321147918701,
                -0.13020557165145874,
                0.1334579586982727,
                0.1386808156967163,
                0.024224400520324707,
                -0.1513003706932068,
                -0.1947849988937378,
                -0.23577040433883667,
                0.19239771366119385,
                -0.018552303314208984,
                0.07053196430206299,
                -0.17018771171569824,
                -0.19274914264678955,
                -0.21770846843719482,
                -0.15720152854919434,
                0.13037580251693726,
                -0.1921716332435608,
                0.11466622352600098,
                0.23100197315216064,
                0.23674583435058594,
                -0.08694219589233398,
                0.01895928382873535,
                -0.09465855360031128,
                -0.028381764888763428,
                0.010639011859893799,
                -0.17293781042099,
                -0.21567291021347046,
                0.050766825675964355,
                -0.05922520160675049,
                0.1839585304260254,
                0.10958707332611084,
                0.1428200602531433,
                -0.14289426803588867
              ],
              [
                -0.12962427735328674,
                -0.02908952161669731,
                0.234843909740448,
                0.01735738292336464,
                0.05283588916063309,
                -0.10422157496213913,
                -0.08850884437561035,
                -0.016961798071861267,
                -0.22583435475826263,
                0.00956040620803833,
                -0.16804206371307373,
                -0.21692465245723724,
                0.054137442260980606,
                -0.2272234708070755,
                0.011073500849306583,
                0.21743278205394745,
                -0.13625004887580872,
                -0.2058437615633011,
                -0.19776608049869537,
                0.08948221057653427,
                0.047290146350860596,
                0.09081476926803589,
                0.06680332869291306,
                -0.18206828832626343,
                0.14901559054851532,
                0.20198695361614227,
                0.17107319831848145,
                -0.18235866725444794,
                -0.06520587205886841,
                0.24594330787658691,
                -0.14046749472618103,
                -0.23874902725219727,
                0.011300653219223022,
                0.10375744104385376,
                -0.14595115184783936,
                0.17773324251174927,
                0.10120873153209686,
                -0.06504756212234497,
                -0.07125848531723022,
                0.2395831197500229,
                -0.20545139908790588,
                0.1283521056175232,
                0.009945749305188656,
                -0.14087356626987457,
                -0.15967422723770142,
                -0.20894984900951385,
                0.005355954170227051,
                0.13282878696918488,
                0.07000535726547241,
                -0.15959753096103668,
                0.19516858458518982,
                0.19620977342128754,
                -0.2567436099052429,
                -0.0028326469473540783,
                -0.16291850805282593,
                0.22569772601127625,
                -0.08958178758621216,
                -0.05089227482676506,
                -0.020178914070129395,
                0.16543501615524292,
                0.07914171367883682,
                0.22476349771022797,
                -0.03868287801742554,
                -0.0014540515840053558
              ],
              [
                -0.0032173707149922848,
                0.18494564294815063,
                0.04206264019012451,
                0.2037210613489151,
                -0.037728141993284225,
                0.005759489256888628,
                0.07409751415252686,
                -0.0856596827507019,
                0.08492875844240189,
                -0.13855528831481934,
                0.10832874476909637,
                -0.036101602017879486,
                0.18368464708328247,
                -0.2273522913455963,
                -0.21805323660373688,
                -0.16213087737560272,
                0.22932934761047363,
                0.19193044304847717,
                -0.09714400768280029,
                0.18234874308109283,
                -0.20727336406707764,
                -0.17296326160430908,
                -0.23701705038547516,
                -0.007807394023984671,
                -0.034392040222883224,
                0.13902898132801056,
                -0.11358249187469482,
                -0.08472295105457306,
                0.16689199209213257,
                -0.09407103061676025,
                -0.1513373851776123,
                -0.026570796966552734,
                0.11848986148834229,
                -0.1618707776069641,
                -0.10942252725362778,
                0.0842222198843956,
                0.2341737300157547,
                -0.021865854039788246,
                -0.14631450176239014,
                -0.029102135449647903,
                -0.03668617457151413,
                -0.10283386707305908,
                -0.061873577535152435,
                -0.02158413641154766,
                -0.042369186878204346,
                0.050033096224069595,
                0.23926657438278198,
                0.24209348857402802,
                0.19143003225326538,
                0.22143782675266266,
                0.035403814166784286,
                0.04644537717103958,
                0.03478464111685753,
                0.12183083593845367,
                -0.12380784749984741,
                -0.2120085507631302,
                0.22281008958816528,
                -0.12204769253730774,
                -0.24715673923492432,
                -0.18456484377384186,
                0.1581200659275055,
                0.2704998850822449,
                0.06375545263290405,
                0.2250431925058365
              ],
              [
                0.21206174790859222,
                0.14719121158123016,
                -0.13721638917922974,
                -0.03699741140007973,
                -0.20599918067455292,
                -0.017925294116139412,
                0.10538530349731445,
                -0.21810473501682281,
                -0.21065062284469604,
                -0.06960880756378174,
                0.20683568716049194,
                0.1818423867225647,
                -0.117495097219944,
                -0.038994282484054565,
                0.10459963232278824,
                0.03202252462506294,
                0.16367726027965546,
                0.09914224594831467,
                0.12462196499109268,
                -0.02274210937321186,
                -0.1598387360572815,
                0.035532474517822266,
                0.16756269335746765,
                -0.17030522227287292,
                -0.20455585420131683,
                -0.07755577564239502,
                0.10596251487731934,
                0.1715964376926422,
                0.1603880524635315,
                -0.09707969427108765,
                0.044290829449892044,
                0.1164591908454895,
                0.08793437480926514,
                -0.2122066617012024,
                -0.1587553769350052,
                0.09744200110435486,
                -0.16081489622592926,
                0.03972242772579193,
                0.06484091281890869,
                0.1015387699007988,
                0.06239740177989006,
                -0.10489439964294434,
                -0.23312196135520935,
                0.22998662292957306,
                -0.22391510009765625,
                0.09279356151819229,
                0.09491235017776489,
                0.023644287139177322,
                -0.007449507713317871,
                -0.01690780185163021,
                -0.03241772949695587,
                0.05490651726722717,
                0.04155227169394493,
                0.12258285284042358,
                0.14400136470794678,
                0.14682471752166748,
                0.18640655279159546,
                -0.21243999898433685,
                0.09275573492050171,
                -0.16011177003383636,
                -0.026883918792009354,
                0.1615159660577774,
                0.06558012962341309,
                0.20205198228359222
              ],
              [
                0.13914212584495544,
                0.10345665365457535,
                0.02419191598892212,
                -0.19695346057415009,
                0.1694745570421219,
                0.007607824634760618,
                -0.22025227546691895,
                -0.16637670993804932,
                0.11175183951854706,
                -0.15116816759109497,
                0.08321546018123627,
                -0.025967959314584732,
                -0.2351074069738388,
                -0.012762661091983318,
                -0.09260806441307068,
                -0.003227097447961569,
                0.14689470827579498,
                -0.22652433812618256,
                -0.14966939389705658,
                0.15315914154052734,
                0.16094821691513062,
                -0.23504328727722168,
                -0.07246322929859161,
                -0.04741061106324196,
                0.046923331916332245,
                -0.11091192066669464,
                -0.22234869003295898,
                -0.13215793669223785,
                -0.0829046368598938,
                -0.04511141777038574,
                0.024325329810380936,
                0.1031683087348938,
                0.20870694518089294,
                -0.15987783670425415,
                0.10403645783662796,
                0.13307489454746246,
                0.022307606413960457,
                -0.0960228443145752,
                0.022538065910339355,
                0.15724559128284454,
                0.12844835221767426,
                -0.2373906970024109,
                -0.23899778723716736,
                0.12049617618322372,
                0.0832134485244751,
                0.0037256176583468914,
                0.19929832220077515,
                -0.19777224957942963,
                0.1360560655593872,
                -0.09384942054748535,
                0.2322826385498047,
                -0.09888046234846115,
                -0.010852040722966194,
                -0.0767677053809166,
                -0.040343284606933594,
                -0.10980883240699768,
                -0.24789774417877197,
                0.046176135540008545,
                -0.05287635326385498,
                0.0935400053858757,
                -0.01899496465921402,
                0.20442698895931244,
                0.09869641065597534,
                -0.18873773515224457
              ],
              [
                -0.18886202573776245,
                -0.13911089301109314,
                0.17125612497329712,
                0.009791441261768341,
                -0.013906221836805344,
                -0.11018247902393341,
                0.1759892702102661,
                -0.01492169126868248,
                -0.061876244843006134,
                -0.1947910189628601,
                -0.21710577607154846,
                -0.08826383203268051,
                0.11801720410585403,
                0.23543302714824677,
                -0.12126114964485168,
                0.09878464043140411,
                0.003048889571800828,
                0.07509852945804596,
                -0.05837363004684448,
                0.14961056411266327,
                -0.17799127101898193,
                0.08938765525817871,
                0.19140303134918213,
                0.026434820145368576,
                -0.07646423578262329,
                -0.09962773323059082,
                -0.0100938081741333,
                -0.1575600653886795,
                -0.17533469200134277,
                0.1885640025138855,
                0.014419720508158207,
                0.123188316822052,
                -0.11288084834814072,
                -0.07199674844741821,
                -7.651072810404003E-4,
                0.18560658395290375,
                0.21358942985534668,
                0.07929152250289917,
                -0.1047927737236023,
                -0.004205374978482723,
                -0.21360161900520325,
                0.09263336658477783,
                0.012306309305131435,
                -0.10173387825489044,
                0.10944843292236328,
                0.21469448506832123,
                0.012560248374938965,
                -0.25843721628189087,
                0.09101659059524536,
                -0.15312126278877258,
                -0.2396499663591385,
                0.21399562060832977,
                0.0489281602203846,
                -0.05126219615340233,
                0.18792766332626343,
                -0.1839175522327423,
                -0.12423235177993774,
                0.08374333381652832,
                0.09368127584457397,
                0.008054050616919994,
                0.027942895889282227,
                0.001159023609943688,
                0.2150198221206665,
                0.04859109967947006
              ],
              [
                -0.024356676265597343,
                0.003876638365909457,
                -0.15231335163116455,
                -0.24729497730731964,
                -0.07207673043012619,
                0.06560057401657104,
                0.0448567271232605,
                0.10189050436019897,
                -0.06547602266073227,
                0.11348271369934082,
                0.016777552664279938,
                -0.11330587416887283,
                -0.0692802220582962,
                -0.03609746694564819,
                0.1501852422952652,
                0.14129264652729034,
                0.09126286953687668,
                0.01908767595887184,
                -0.05480562150478363,
                0.1865629255771637,
                -0.07299190759658813,
                -0.08669483661651611,
                -0.13918495178222656,
                0.06921956688165665,
                -0.21022409200668335,
                -0.013535501435399055,
                0.18020260334014893,
                0.2054196447134018,
                0.034079134464263916,
                -0.23813313245773315,
                0.1085406094789505,
                -0.20755654573440552,
                0.13526330888271332,
                0.01468515396118164,
                -0.09009726345539093,
                -0.2061665803194046,
                0.22756899893283844,
                -0.12277848273515701,
                -0.22131401300430298,
                -0.19874858856201172,
                -0.07966259866952896,
                0.18679875135421753,
                0.15562860667705536,
                0.16405311226844788,
                -0.192920982837677,
                -0.18363775312900543,
                -0.17588400840759277,
                -0.19516979157924652,
                0.2231162190437317,
                -0.20217418670654297,
                0.2069457769393921,
                0.1471729278564453,
                0.18013136088848114,
                -0.11284270137548447,
                -0.049521803855895996,
                -0.05172683298587799,
                0.12570887804031372,
                0.11376941949129105,
                -0.2017444372177124,
                0.03923878073692322,
                0.24358654022216797,
                -0.0747695341706276,
                0.21275341510772705,
                -0.011956457979977131
              ],
              [
                0.23362475633621216,
                0.17279505729675293,
                -0.07007133960723877,
                0.02920544147491455,
                -0.15176385641098022,
                -0.15400773286819458,
                -0.13712620735168457,
                -0.001057267189025879,
                -0.012424468994140625,
                0.07313013076782227,
                -0.16517966985702515,
                0.1825140118598938,
                -0.2120530605316162,
                -0.042721331119537354,
                0.06802886724472046,
                -0.2414206862449646,
                0.1286751627922058,
                -0.12771177291870117,
                -0.1381346583366394,
                0.1644178032875061,
                0.10348266363143921,
                -0.12584292888641357,
                -0.19848871231079102,
                0.18787920475006104,
                -0.2193666696548462,
                -0.006473839282989502,
                -0.21334654092788696,
                0.13235217332839966,
                0.11760538816452026,
                0.15188992023468018,
                -0.08840614557266235,
                -0.05568516254425049,
                -0.24281907081604004,
                -0.06466567516326904,
                0.2429937720298767,
                -0.07824909687042236,
                -0.004590928554534912,
                -0.006017863750457764,
                -0.1713894009590149,
                0.021671593189239502,
                0.1438891887664795,
                -0.12489151954650879,
                0.13876575231552124,
                -0.11986184120178223,
                -0.19973325729370117,
                0.047884583473205566,
                -0.19333040714263916,
                0.03173702955245972,
                -0.11806738376617432,
                -0.04946696758270264,
                0.033686161041259766,
                -0.09316807985305786,
                -0.09490686655044556,
                0.037264227867126465,
                0.06808435916900635,
                0.02157294750213623,
                0.06698375940322876,
                0.23314672708511353,
                0.21657639741897583,
                -0.1041100025177002,
                -0.21673059463500977,
                -0.2322651743888855,
                -0.11447137594223022,
                -0.19460511207580566
              ],
              [
                -0.05321141332387924,
                0.1683468371629715,
                0.23374956846237183,
                -0.1917109489440918,
                -0.14858068525791168,
                0.20597286522388458,
                0.11215746402740479,
                -0.042755842208862305,
                -0.07524444907903671,
                0.20157241821289062,
                0.0952860563993454,
                -0.0163822490721941,
                0.2379097193479538,
                0.14236868917942047,
                -0.1300203800201416,
                -0.03254044055938721,
                0.009868107736110687,
                0.21611392498016357,
                0.2503698468208313,
                0.15322677791118622,
                0.003915190696716309,
                -0.1915263533592224,
                -0.12613296508789062,
                0.047182098031044006,
                -0.16425821185112,
                0.17141668498516083,
                -0.21942728757858276,
                -0.21257269382476807,
                0.22956275939941406,
                -0.22018659114837646,
                0.11720501631498337,
                -0.2105502486228943,
                0.11648097634315491,
                -0.15191519260406494,
                0.14993558824062347,
                -0.23097917437553406,
                0.07494958490133286,
                -0.04050906002521515,
                0.16878670454025269,
                -0.10043979436159134,
                -0.10466393828392029,
                -0.12617307901382446,
                0.2458629161119461,
                -0.20518097281455994,
                -0.025860071182250977,
                0.23851242661476135,
                -0.1392725706100464,
                -0.15521140396595,
                -0.11293178796768188,
                -0.08616691827774048,
                -0.027493806555867195,
                -0.13458552956581116,
                -0.010953421704471111,
                -0.009572405368089676,
                -0.2473047971725464,
                0.054133035242557526,
                -0.17222362756729126,
                0.20808309316635132,
                0.14237374067306519,
                0.03766237571835518,
                0.22916030883789062,
                -0.18579791486263275,
                -0.22243446111679077,
                -0.08793099969625473
              ],
              [
                0.12061309814453125,
                0.19905440509319305,
                -0.032194554805755615,
                -0.16436557471752167,
                0.1904233992099762,
                -0.195662721991539,
                0.05244016647338867,
                0.12479022890329361,
                -0.028575025498867035,
                -0.08345240354537964,
                -0.20800776779651642,
                -0.19920997321605682,
                -0.24360357224941254,
                0.2194572538137436,
                -0.08816664665937424,
                0.1565459817647934,
                0.07598594576120377,
                -0.21002183854579926,
                -0.1898183375597,
                0.04052526131272316,
                -0.016321241855621338,
                0.11021000146865845,
                -0.17520685493946075,
                -0.09777525067329407,
                0.033056288957595825,
                -0.1380571722984314,
                -0.08905529975891113,
                0.19759565591812134,
                -0.08291161060333252,
                3.7801265716552734E-4,
                -0.061331961303949356,
                0.09224706888198853,
                0.1374361366033554,
                -0.017723023891448975,
                -0.07326529920101166,
                0.0961751788854599,
                0.11242881417274475,
                0.12145652621984482,
                0.19952863454818726,
                0.20636402070522308,
                -0.01743408478796482,
                0.02048879861831665,
                -0.06293832510709763,
                0.21486294269561768,
                0.15798532962799072,
                0.0513499416410923,
                -0.11612755060195923,
                -0.19659265875816345,
                -0.027976632118225098,
                0.1989555060863495,
                -0.07432723045349121,
                -0.2531033158302307,
                -0.060864921659231186,
                0.2325442135334015,
                -0.009753227233886719,
                0.17373603582382202,
                -0.23784655332565308,
                0.19580967724323273,
                -0.22902178764343262,
                -0.16123142838478088,
                0.12683801352977753,
                -0.22053292393684387,
                0.12410235404968262,
                0.06021557003259659
              ],
              [
                -0.11127877235412598,
                -0.0175783634185791,
                -0.05509841442108154,
                0.12184232473373413,
                -0.24155497550964355,
                0.08344501256942749,
                0.03242391347885132,
                -0.12048262357711792,
                -0.240916907787323,
                -0.09213680028915405,
                -0.2061018943786621,
                -0.05426889657974243,
                -0.23597484827041626,
                0.1672295331954956,
                -0.034443676471710205,
                -0.017808377742767334,
                -0.11469441652297974,
                0.12393748760223389,
                -0.13632625341415405,
                0.19173508882522583,
                -0.16715008020401,
                -0.19347834587097168,
                0.0041086673736572266,
                0.00446772575378418,
                0.09869962930679321,
                -0.010938167572021484,
                0.11397600173950195,
                0.09890133142471313,
                0.12114274501800537,
                -0.20920950174331665,
                -0.03864055871963501,
                -0.13948595523834229,
                -0.23431283235549927,
                0.012814164161682129,
                0.02601391077041626,
                -0.16809314489364624,
                -0.006353259086608887,
                0.13814473152160645,
                0.09101688861846924,
                -0.1847856044769287,
                0.004077434539794922,
                -0.06441128253936768,
                -0.11196041107177734,
                0.16437512636184692,
                0.04583853483200073,
                0.06741243600845337,
                0.042187631130218506,
                0.17804408073425293,
                0.08858680725097656,
                -0.04470252990722656,
                -0.09683328866958618,
                -0.17342156171798706,
                -0.031470298767089844,
                -0.24653375148773193,
                0.06836521625518799,
                0.2040015459060669,
                0.23421764373779297,
                0.1648809313774109,
                -0.06287968158721924,
                0.13436192274093628,
                -0.2325214147567749,
                0.012369275093078613,
                0.20594537258148193,
                0.10331606864929199
              ],
              [
                -0.2305019497871399,
                -0.07016324251890182,
                0.05809521675109863,
                0.06947378814220428,
                0.004202902317047119,
                -0.27415505051612854,
                -0.047213733196258545,
                0.18601787090301514,
                -0.26695847511291504,
                0.24512732028961182,
                -0.1773330420255661,
                0.2015233337879181,
                0.035640403628349304,
                -0.14905613660812378,
                0.017386745661497116,
                0.13559408485889435,
                0.044131070375442505,
                -0.10459859669208527,
                0.11524273455142975,
                0.08944296836853027,
                -0.05561792850494385,
                -0.15402013063430786,
                0.03682764247059822,
                -0.09921532869338989,
                0.19564689695835114,
                0.11053290218114853,
                -0.03588050603866577,
                -0.11561500281095505,
                -0.24789559841156006,
                0.05016779899597168,
                -0.28021901845932007,
                0.0735284686088562,
                -0.24882657825946808,
                0.24306631088256836,
                0.13074257969856262,
                -0.21908879280090332,
                -0.24137622117996216,
                0.07836368680000305,
                0.18066221475601196,
                -0.09106836467981339,
                -0.01987011358141899,
                0.0038297176361083984,
                0.1740647554397583,
                -0.11847175657749176,
                -0.03750920295715332,
                -0.14398105442523956,
                -0.06365758180618286,
                0.046039946377277374,
                0.12696003913879395,
                0.1855541318655014,
                -0.14397719502449036,
                0.21459826827049255,
                0.14167898893356323,
                0.15870440006256104,
                -0.07364249229431152,
                -0.1371210515499115,
                0.07490617036819458,
                0.11656394600868225,
                0.20017629861831665,
                -0.03598663955926895,
                0.20528888702392578,
                0.12404149770736694,
                0.21295040845870972,
                -0.26363274455070496
              ],
              [
                0.1423206329345703,
                -0.05059802532196045,
                0.22212350368499756,
                -0.23081636428833008,
                -0.018358469009399414,
                -0.05072963237762451,
                -0.04455822706222534,
                -0.12317889928817749,
                -0.1368558406829834,
                -0.06892818212509155,
                0.17662882804870605,
                -0.2418484091758728,
                -0.16689741611480713,
                -0.03787440061569214,
                0.1924760937690735,
                -0.1433735489845276,
                -0.027694344520568848,
                -0.006650984287261963,
                0.22280633449554443,
